8.064867630943748    8.353897054277567    4.996138178392674    -14.413136478148536    -17.094152322984176    9.179292302024615
-0.15362704729361173    1.1238258407589514    0.345985007023574    -2.3189788723362    -6.4727273887093055    3.745335630827139
-2.4020174516725716    -0.17389654640406618    0.37801453920670225    -0.8755159349136159    0.23335807466608302    14.066251495338788
0.6024034776492001    -0.18014349884417202    0.4328474746967409    -0.816740026264347    -8.263989132434538    19.910198319143085
0.8670285034855573    1.2137638095763545    -1.097227565890856    -2.5484780922995496    5.785261294554751    -4.495158131405534
1.0759631459640584    -0.042485198787499366    -0.49933147021282537    6.7521172579463595    -0.3458177676312959    -9.315566790558675
-3.22910360705886    2.3205786590972406    -1.7318072196016225    -0.3913085043370155    -0.21468590727655976    4.509181158092189
-0.8909801681676396    1.5477466372815343    0.11726259434222987    -3.3929061175105972    0.34012900104334154    7.467436107097353
-1.001738067467651    0.05128832030188113    0.8576194248087526    2.5006431630151225    0.15640852444546016    -15.060813207954915
-0.5947655225992433    -0.9951999304307578    0.8503118682159433    2.63106766257162    -8.745330463788385    4.934070828870936
3.050364733384282    -3.2405434103223203    -8.563703242686454    5.885276650021084    1.3259050293803885    -12.606225360689644
-1.2190443599367786    -0.16199784868048492    0.3724487109765195    -6.296907352301436    0.2952799198002963    9.736784258603048
-2.829548694116906    2.7401589754471556    -3.056554556695262    -10.672091535547235    2.4937557111201922    -3.6482513987695273
9.00118870434181    -0.6690853781733352    -30.34671264245762    -0.2255707075694591    -1.1599447764474178    8.812015017859185
-2.254364251991391    1.8448276206976015    -10.947271326630107    -0.9254316327595302    0.09574810355441027    32.12021695413321
1.1925206182705705    -1.262785487651849    1.7693848959390257    -1.2276890400660532    0.17012592094373116    -3.6909568321873434
0.1790070536200743    -0.7586136465551571    -0.5422167273913016    1.4756792831457126    0.4338731359654417    1.7633222085975455
-0.5232746940165289    0.6854885744818634    1.0725312745011906    -3.5193918914828584    0.006447610409294641    -5.6332881269868995
1.1688794150004413    -1.1479354393250174    2.458092661814721    2.331672197212481    0.23628680677574848    -11.671406917260239
